<?xml version="1.0"?>
<opencv_storage>
<stage5>
  <maxWeakCount>14</maxWeakCount>
  <stageThreshold>-6.3773638010025024e-01</stageThreshold>
  <weakClassifiers>
    <_>
      <internalNodes>
        0 -1 70890 -7.2312762495130301e-04</internalNodes>
      <leafValues>
        6.6089963912963867e-01 2.8938906267285347e-02</leafValues></_>
    <_>
      <internalNodes>
        0 -1 74472 3.3266339451074600e-02</internalNodes>
      <leafValues>
        -2.0511896908283234e-01 4.8628827929496765e-01</leafValues></_>
    <_>
      <internalNodes>
        0 -1 76257 -1.7713198438286781e-02</internalNodes>
      <leafValues>
        7.0394134521484375e-01 -2.2571322321891785e-01</leafValues></_>
    <_>
      <internalNodes>
        0 -1 59652 -1.4595426619052887e-03</internalNodes>
      <leafValues>
        5.8676737546920776e-01 -1.8596787750720978e-01</leafValues></_>
    <_>
      <internalNodes>
        0 -1 72033 -4.2869598837569356e-04</internalNodes>
      <leafValues>
        4.4042068719863892e-01 -3.4001573920249939e-01</leafValues></_>
    <_>
      <internalNodes>
        0 -1 76399 -5.3262016735970974e-03</internalNodes>
      <leafValues>
        -6.9359636306762695e-01 1.9419500231742859e-01</leafValues></_>
    <_>
      <internalNodes>
        0 -1 31975 1.3427775411400944e-04</internalNodes>
      <leafValues>
        -3.4624558687210083e-01 2.8895351290702820e-01</leafValues></_>
    <_>
      <internalNodes>
        0 -1 73860 2.3143910802900791e-03</internalNodes>
      <leafValues>
        -2.8560760617256165e-01 3.7493106722831726e-01</leafValues></_>
    <_>
      <internalNodes>
        0 -1 5583 -2.5234150886535645e-01</internalNodes>
      <leafValues>
        8.0129504203796387e-01 -1.4142596721649170e-01</leafValues></_>
    <_>
      <internalNodes>
        0 -1 54452 1.1006151908077300e-04</internalNodes>
      <leafValues>
        -3.7411704659461975e-01 3.3137431740760803e-01</leafValues></_>
    <_>
      <internalNodes>
        0 -1 56416 2.4211959913372993e-02</internalNodes>
      <leafValues>
        1.3397322595119476e-01 -7.9541081190109253e-01</leafValues></_>
    <_>
      <internalNodes>
        0 -1 77536 -2.5128509150817990e-04</internalNodes>
      <leafValues>
        3.7482139468193054e-01 -2.9963994026184082e-01</leafValues></_>
    <_>
      <internalNodes>
        0 -1 70298 4.7705578617751598e-04</internalNodes>
      <leafValues>
        -2.8414630889892578e-01 3.6874273419380188e-01</leafValues></_>
    <_>
      <internalNodes>
        0 -1 68583 8.2580791786313057e-04</internalNodes>
      <leafValues>
        -2.2690059244632721e-01 4.6550974249839783e-01</leafValues></_></weakClassifiers></stage5>
</opencv_storage>
