<?xml version="1.0"?>
<opencv_storage>
<stage8>
  <maxWeakCount>12</maxWeakCount>
  <stageThreshold>-5.5616778135299683e-01</stageThreshold>
  <weakClassifiers>
    <_>
      <internalNodes>
        0 -1 66946 -1.1179032735526562e-03</internalNodes>
      <leafValues>
        5.7020056247711182e-01 3.9840638637542725e-03</leafValues></_>
    <_>
      <internalNodes>
        0 -1 69398 4.8736180178821087e-04</internalNodes>
      <leafValues>
        -1.8902637064456940e-01 5.3211098909378052e-01</leafValues></_>
    <_>
      <internalNodes>
        0 -1 75669 -3.0661309137940407e-02</internalNodes>
      <leafValues>
        6.9062030315399170e-01 -1.4205431938171387e-01</leafValues></_>
    <_>
      <internalNodes>
        0 -1 59433 -2.9157693497836590e-03</internalNodes>
      <leafValues>
        5.0406831502914429e-01 -1.9336679577827454e-01</leafValues></_>
    <_>
      <internalNodes>
        0 -1 3921 -3.4357071854174137e-04</internalNodes>
      <leafValues>
        2.5071114301681519e-01 -3.5052594542503357e-01</leafValues></_>
    <_>
      <internalNodes>
        0 -1 76095 -6.4896782860159874e-03</internalNodes>
      <leafValues>
        -7.9892480373382568e-01 9.2393457889556885e-02</leafValues></_>
    <_>
      <internalNodes>
        0 -1 73244 3.4226900897920132e-03</internalNodes>
      <leafValues>
        -1.5450403094291687e-01 6.2702029943466187e-01</leafValues></_>
    <_>
      <internalNodes>
        0 -1 73378 -1.9054228905588388e-03</internalNodes>
      <leafValues>
        7.3841947317123413e-01 -1.1577007919549942e-01</leafValues></_>
    <_>
      <internalNodes>
        0 -1 77407 -1.1537127429619431e-03</internalNodes>
      <leafValues>
        -7.0097345113754272e-01 1.4884121716022491e-01</leafValues></_>
    <_>
      <internalNodes>
        0 -1 68456 2.5109273847192526e-03</internalNodes>
      <leafValues>
        -2.2386749088764191e-01 4.0798169374465942e-01</leafValues></_>
    <_>
      <internalNodes>
        0 -1 73163 -6.5110540017485619e-03</internalNodes>
      <leafValues>
        -6.7655372619628906e-01 1.4864262938499451e-01</leafValues></_>
    <_>
      <internalNodes>
        0 -1 20883 -2.8007110813632607e-04</internalNodes>
      <leafValues>
        3.4471216797828674e-01 -2.7834928035736084e-01</leafValues></_></weakClassifiers></stage8>
</opencv_storage>
