<?xml version="1.0"?>
<opencv_storage>
<stage4>
  <maxWeakCount>11</maxWeakCount>
  <stageThreshold>-6.2362760305404663e-01</stageThreshold>
  <weakClassifiers>
    <_>
      <internalNodes>
        0 -1 66376 4.6074585989117622e-03</internalNodes>
      <leafValues>
        4.8207172751426697e-01 -4.2857143282890320e-01</leafValues></_>
    <_>
      <internalNodes>
        0 -1 74502 9.4816954806447029e-03</internalNodes>
      <leafValues>
        -1.7562088370323181e-01 6.1238998174667358e-01</leafValues></_>
    <_>
      <internalNodes>
        0 -1 54361 -2.6388792321085930e-03</internalNodes>
      <leafValues>
        4.7815814614295959e-01 -2.7925691008567810e-01</leafValues></_>
    <_>
      <internalNodes>
        0 -1 74128 -1.5918556600809097e-03</internalNodes>
      <leafValues>
        3.6898195743560791e-01 -2.8560110926628113e-01</leafValues></_>
    <_>
      <internalNodes>
        0 -1 14410 5.1337899640202522e-03</internalNodes>
      <leafValues>
        -2.3224632441997528e-01 4.4327703118324280e-01</leafValues></_>
    <_>
      <internalNodes>
        0 -1 76039 1.1816939339041710e-02</internalNodes>
      <leafValues>
        1.6589179635047913e-01 -7.9850703477859497e-01</leafValues></_>
    <_>
      <internalNodes>
        0 -1 44040 1.3344663602765650e-04</internalNodes>
      <leafValues>
        -3.9306622743606567e-01 3.1747192144393921e-01</leafValues></_>
    <_>
      <internalNodes>
        0 -1 77392 6.4654406160116196e-03</internalNodes>
      <leafValues>
        1.1359331011772156e-01 -8.0429983139038086e-01</leafValues></_>
    <_>
      <internalNodes>
        0 -1 77297 -1.1276081204414368e-03</internalNodes>
      <leafValues>
        4.4452491402626038e-01 -2.5739952921867371e-01</leafValues></_>
    <_>
      <internalNodes>
        0 -1 77032 5.8105420321226120e-03</internalNodes>
      <leafValues>
        -2.0028257369995117e-01 5.3762710094451904e-01</leafValues></_>
    <_>
      <internalNodes>
        0 -1 41332 -5.8943452313542366e-04</internalNodes>
      <leafValues>
        3.5126158595085144e-01 -2.6363530755043030e-01</leafValues></_></weakClassifiers></stage4>
</opencv_storage>
