<?xml version="1.0"?>
<opencv_storage>
<stage7>
  <maxWeakCount>13</maxWeakCount>
  <stageThreshold>-5.1242417097091675e-01</stageThreshold>
  <weakClassifiers>
    <_>
      <internalNodes>
        0 -1 77337 -6.3787298277020454e-03</internalNodes>
      <leafValues>
        -4.9206349253654480e-01 4.3016758561134338e-01</leafValues></_>
    <_>
      <internalNodes>
        0 -1 46240 -6.4221350476145744e-03</internalNodes>
      <leafValues>
        3.8404384255409241e-01 -2.6203355193138123e-01</leafValues></_>
    <_>
      <internalNodes>
        0 -1 59376 -4.1580456309020519e-04</internalNodes>
      <leafValues>
        3.5519975423812866e-01 -2.5486657023429871e-01</leafValues></_>
    <_>
      <internalNodes>
        0 -1 76081 -5.1565915346145630e-03</internalNodes>
      <leafValues>
        4.8916155099868774e-01 -1.7608892917633057e-01</leafValues></_>
    <_>
      <internalNodes>
        0 -1 73217 -7.1038445457816124e-03</internalNodes>
      <leafValues>
        -8.6741828918457031e-01 1.2133841216564178e-01</leafValues></_>
    <_>
      <internalNodes>
        0 -1 62247 -3.0825040303170681e-03</internalNodes>
      <leafValues>
        -8.6804378032684326e-01 6.5306909382343292e-02</leafValues></_>
    <_>
      <internalNodes>
        0 -1 33645 -3.8050924194976687e-04</internalNodes>
      <leafValues>
        3.4079757332801819e-01 -2.6695483922958374e-01</leafValues></_>
    <_>
      <internalNodes>
        0 -1 78172 -2.1952334791421890e-03</internalNodes>
      <leafValues>
        6.2803786993026733e-01 -1.7457631230354309e-01</leafValues></_>
    <_>
      <internalNodes>
        0 -1 78172 3.7274375790730119e-04</internalNodes>
      <leafValues>
        -3.3650758862495422e-01 3.1960836052894592e-01</leafValues></_>
    <_>
      <internalNodes>
        0 -1 67904 1.2013959931209683e-03</internalNodes>
      <leafValues>
        -4.1173267364501953e-01 2.5094240903854370e-01</leafValues></_>
    <_>
      <internalNodes>
        0 -1 65409 1.1732357554137707e-02</internalNodes>
      <leafValues>
        1.1064986139535904e-01 -7.8381025791168213e-01</leafValues></_>
    <_>
      <internalNodes>
        0 -1 51085 -6.1818477697670460e-03</internalNodes>
      <leafValues>
        4.6103304624557495e-01 -2.1392098069190979e-01</leafValues></_>
    <_>
      <internalNodes>
        0 -1 50903 -2.9556248337030411e-03</internalNodes>
      <leafValues>
        5.7354950904846191e-01 -1.8584278225898743e-01</leafValues></_></weakClassifiers></stage7>
</opencv_storage>
